<?xml version="1.0"?>
<opencv_storage>
<cascade>
  <stageType>BOOST</stageType>
  <featureType>HAAR</featureType>
  <height>24</height>
  <width>24</width>
  <stageParams>
    <boostType>GAB</boostType>
    <minHitRate>9.9500000476837158e-01</minHitRate>
    <maxFalseAlarm>5.0000000000000000e-01</maxFalseAlarm>
    <weightTrimRate>9.4999998807907104e-01</weightTrimRate>
    <maxDepth>1</maxDepth>
    <maxWeakCount>100</maxWeakCount></stageParams>
  <featureParams>
    <maxCatCount>0</maxCatCount>
    <featSize>1</featSize>
    <mode>BASIC</mode></featureParams>
  <stageNum>15</stageNum>
  <stages>
    <!-- stage 0 -->
    <_>
      <maxWeakCount>19</maxWeakCount>
      <stageThreshold>-1.0694084167480469e+00</stageThreshold>
      <weakClassifiers>
        <_>
          <internalNodes>
            0 -1 135 -3.4624218940734863e-02</internalNodes>
          <leafValues>
            5.2272725105285645e-01 -1.7586649954319000e-01</leafValues></_>
        <_>
          <internalNodes>
            0 -1 21 4.8945285379886627e-02</internalNodes>
          <leafValues>
            -1.4584845304489136e-01 5.5172461271286011e-01</leafValues></_>
        <_>
          <internalNodes>
            0 -1 160 -3.4990668296813965e-02</internalNodes>
          <leafValues>
            4.7220519185066223e-01 -1.1818723380565643e-01</leafValues></_>
        <_>
          <internalNodes>
            0 -1 347 9.7175706177949905e-03</internalNodes>
          <leafValues>
            -2.3078316450119019e-01 4.0063881874084473e-01</leafValues></_>
        <_>
          <internalNodes>
            0 -1 283 4.0190495550632477e-02</internalNodes>
          <leafValues>
            -8.1710956990718842e-02 5.0109934806823730e-01</leafValues></_>
        <_>
          <internalNodes>
            0 -1 45 1.5033918619155884e-01</internalNodes>
          <leafValues>
            -1.0162480920553207e-01 6.5043371915817261e-01</leafValues></_>
        <_>
          <internalNodes>
            0 -1 396 2.6540573686361313e-02</internalNodes>
          <leafValues>
            -1.4561134576797485e-01 4.3724638223648071e-01</leafValues></_>
        <_>
          <internalNodes>
            0 -1 291 2.6982208713889122e-02</internalNodes>
          <leafValues>
            -8.6280211806297302e-02 5.5273050069808960e-01</leafValues></_>
        <_>
          <internalNodes>
            0 -1 349 -2.6612708345055580e-02</internalNodes>
          <leafValues>
            5.1773738861083984e-01 -1.0949708521366119e-01</leafValues></_>
        <_>
          <internalNodes>
            0 -1 328 -2.6594405993819237e-02</internalNodes>
          <leafValues>
            5.7532727718353271e-01 -1.0755746811628342e-01</leafValues></_>
        <_>
          <internalNodes>
            0 -1 364 9.4461590051651001e-03</internalNodes>
          <leafValues>
            -1.0573353618383408e-01 5.7156825065612793e-01</leafValues></_>
        <_>
          <internalNodes>
            0 -1 354 2.2844087332487106e-02</internalNodes>
          <leafValues>
            -1.0161566734313965e-01 4.3271979689598083e-01</leafValues></_>
        <_>
          <internalNodes>
            0 -1 65 4.2820121161639690e-03</internalNodes>
          <leafValues>
            6.8906381726264954e-02 -6.6666203737258911e-01</leafValues></_>
        <_>
          <internalNodes>
            0 -1 127 -1.9917815923690796e-02</internalNodes>
          <leafValues>
            -8.1268495321273804e-01 6.1492223292589188e-02</leafValues></_>
        <_>
          <internalNodes>
            0 -1 191 4.7543607652187347e-03</internalNodes>
          <leafValues>
            -1.3503564894199371e-01 3.7347856163978577e-01</leafValues></_>
        <_>
          <internalNodes>
            0 -1 140 2.9668755829334259e-02</internalNodes>
          <leafValues>
            -7.9279772937297821e-02 6.2392407655715942e-01</leafValues></_>
        <_>
          <internalNodes>
            0 -1 88 -2.4776276201009750e-02</internalNodes>
          <leafValues>
            4.6068328619003296e-01 -8.7249226868152618e-02</leafValues></_>
        <_>
          <internalNodes>
            0 -1 518 -3.1718767713755369e-03</internalNodes>
          <leafValues>
            -4.8075520992279053e-01 1.1248981207609177e-01</leafValues></_>
        <_>
          <internalNodes>
            0 -1 464 -1.2849364429712296e-03</internalNodes>
          <leafValues>
            2.5011879205703735e-01 -1.8330053985118866e-01</leafValues></_></weakClassifiers></_>
    <!-- stage 1 -->
    <_>
      <maxWeakCount>33</maxWeakCount>
      <stageThreshold>-1.0618958473205566e+00</stageThreshold>
      <weakClassifiers>
        <_>
          <internalNodes>
            0 -1 253 1.1585013009607792e-02</internalNodes>
          <leafValues>
            -1.4105793833732605e-01 4.1614907979965210e-01</leafValues></_>
        <_>
          <internalNodes>
            0 -1 93 1.3459807634353638e-01</internalNodes>
          <leafValues>
            -5.0533816218376160e-02 8.1056177616119385e-01</leafValues></_>
        <_>
          <internalNodes>
            0 -1 23 -3.9345167577266693e-02</internalNodes>
          <leafValues>
            3.8429585099220276e-01 -1.3559339940547943e-01</leafValues></_>
        <_>
          <internalNodes>
            0 -1 186 -3.3845052123069763e-02</internalNodes>
          <leafValues>
            4.6752136945724487e-01 -1.0921667516231537e-01</leafValues></_>
        <_>
          <internalNodes>
            0 -1 132 -1.8292793538421392e-03</internalNodes>
          <leafValues>
            -4.0013909339904785e-01 1.1907235532999039e-01</leafValues></_>
        <_>
          <internalNodes>
            0 -1 420 7.6529122889041901e-03</internalNodes>
          <leafValues>
            -1.4854972250759602e-02 4.7046962380409241e-01</leafValues></_>
        <_>
          <internalNodes>
            0 -1 566 8.9971366105601192e-04</internalNodes>
          <leafValues>
            6.6332235932350159e-02 -4.9817499518394470e-01</leafValues></_>
        <_>
          <internalNodes>
            0 -1 220 -9.2063834890723228e-03</internalNodes>
          <leafValues>
            3.6278960108757019e-01 -1.5546396374702454e-01</leafValues></_>
        <_>
          <internalNodes>
            0 -1 189 1.7038902267813683e-02</internalNodes>
          <leafValues>
            -7.6821848750114441e-02 4.5807641744613647e-01</leafValues></_>
        <_>
          <internalNodes>
            0 -1 322 8.3306655287742615e-03</internalNodes>
          <leafValues>
            -8.0499239265918732e-02 5.2716535329818726e-01</leafValues></_>
        <_>
          <internalNodes>
            0 -1 73 -6.4635742455720901e-04</internalNodes>
          <leafValues>
            -3.1641635298728943e-01 1.2985359132289886e-01</leafValues></_>
        <_>
          <internalNodes>
            0 -1 386 2.9736550059169531e-03</internalNodes>
          <leafValues>
            -1.6243198513984680e-01 2.5351604819297791e-01</leafValues></_>
        <_>
          <internalNodes>
            0 -1 398 -1.7182361334562302e-02</internalNodes>
          <leafValues>
            4.4609105587005615e-01 -6.3603028655052185e-02</leafValues></_>
        <_>
          <internalNodes>
            0 -1 545 1.0936774779111147e-03</internalNodes>
          <leafValues>
            1.0210020840167999e-01 -4.0422803163528442e-01</leafValues></_>
        <_>
          <internalNodes>
            0 -1 238 -8.1765621900558472e-02</internalNodes>
          <leafValues>
            4.6453130245208740e-01 -9.9181979894638062e-02</leafValues></_>
        <_>
          <internalNodes>
            0 -1 80 4.9909580498933792e-02</internalNodes>
          <leafValues>
            -1.0103354603052139e-01 4.1290089488029480e-01</leafValues></_>
        <_>
          <internalNodes>
            0 -1 231 2.9477462172508240e-02</internalNodes>
          <leafValues>
            -1.0797634720802307e-01 3.8847836852073669e-01</leafValues></_>
        <_>
          <internalNodes>
            0 -1 61 -2.2341357544064522e-02</internalNodes>
          <leafValues>
            -8.0744147300720215e-01 6.4744912087917328e-02</leafValues></_>
        <_>
          <internalNodes>
            0 -1 188 9.2047881335020065e-03</internalNodes>
          <leafValues>
            -1.7376451194286346e-01 2.7146992087364197e-01</leafValues></_>
        <_>
          <internalNodes>
            0 -1 320 2.3742057383060455e-03</internalNodes>
          <leafValues>
            -7.9034328460693359e-02 4.7891551256179810e-01</leafValues></_>
        <_>
          <internalNodes>
            0 -1 425 -2.0543470978736877e-02</internalNodes>
          <leafValues>
            4.0665522217750549e-01 -9.2333003878593445e-02</leafValues></_>
        <_>
          <internalNodes>
            0 -1 409 1.7589313909411430e-02</internalNodes>
          <leafValues>
            -1.0391818732023239e-01 4.6150651574134827e-01</leafValues></_>
        <_>
          <internalNodes>
            0 -1 468 -9.3617718666791916e-03</internalNodes>
          <leafValues>
            3.3660387992858887e-01 -1.2612892687320709e-01</leafValues></_>
        <_>
          <internalNodes>
            0 -1 125 3.7094298750162125e-03</internalNodes>
          <leafValues>
            8.0748863518238068e-02 -5.6082171201705933e-01</leafValues></_>
        <_>
          <internalNodes>
            0 -1 303 9.3924580141901970e-03</internalNodes>
          <leafValues>
            -1.1062285304069519e-01 3.4638434648513794e-01</leafValues></_>
        <_>
          <internalNodes>
            0 -1 273 1.0640429332852364e-02</internalNodes>
          <leafValues>
            -6.7257456481456757e-02 5.8705574274063110e-01</leafValues></_>
        <_>
          <internalNodes>
            0 -1 55 -9.6602085977792740e-04</internalNodes>
          <leafValues>
            -4.9495640397071838e-01 8.2230798900127411e-02</leafValues></_>
        <_>
          <internalNodes>
            0 -1 430 9.9367406219244003e-03</internalNodes>
          <leafValues>
            -1.2950450181961060e-01 2.9228982329368591e-01</leafValues></_>
        <_>
          <internalNodes>
            0 -1 429 -7.0857647806406021e-03</internalNodes>
          <leafValues>
            -4.9405574798583984e-01 8.0413013696670532e-02</leafValues></_>
        <_>
          <internalNodes>
            0 -1 255 7.9794339835643768e-03</internalNodes>
          <leafValues>
            -1.4576397836208344e-01 2.9161542654037476e-01</leafValues></_>
        <_>
          <internalNodes>
            0 -1 504 -6.2352343229576945e-04</internalNodes>
          <leafValues>
            -3.7385866045951843e-01 1.1470301449298859e-01</leafValues></_>
        <_>
          <internalNodes>
            0 -1 219 -2.9455209150910378e-03</internalNodes>
          <leafValues>
            3.2397875189781189e-01 -1.0724288970232010e-01</leafValues></_>
        <_>
          <internalNodes>
            0 -1 103 -5.0202845595777035e-03</internalNodes>
          <leafValues>
            -6.3684594631195068e-01 6.1449836939573288e-02</leafValues></_></weakClassifiers></_>
    <!-- stage 2 -->
    <_>
      <maxWeakCount>31</maxWeakCount>
      <stageThreshold>-1.0164107084274292e+00</stageThreshold>
      <weakClassifiers>
        <_>
          <internalNodes>
            0 -1 551 -3.0045601306483150e-04</internalNodes>
          <leafValues>
            -4.2492014169692993e-01 1.3707165420055389e-01</leafValues></_>
        <_>
          <internalNodes>
            0 -1 415 -1.2918551266193390e-01</internalNodes>
          <leafValues>
            6.1586081981658936e-01 -1.0673049837350845e-01</leafValues></_>
        <_>
          <internalNodes>
            0 -1 12 -2.7376526594161987e-01</internalNodes>
          <leafValues>
            5.4220557212829590e-01 -1.6922572255134583e-01</leafValues></_>
        <_>
          <internalNodes>
            0 -1 6 -6.3987157773226500e-04</internalNodes>
          <leafValues>
            -4.1383504867553711e-01 1.7904055118560791e-01</leafValues></_>
        <_>
          <internalNodes>
            0 -1 85 1.8502697348594666e-01</internalNodes>
          <leafValues>
            -7.9608939588069916e-02 5.5792891979217529e-01</leafValues></_>
        <_>
          <internalNodes>
            0 -1 527 -9.6696539549157023e-04</internalNodes>
          <leafValues>
            -4.5966902375221252e-01 1.1290297657251358e-01</leafValues></_>
        <_>
          <internalNodes>
            0 -1 73 -1.1393852764740586e-03</internalNodes>
          <leafValues>
            -3.9086237549781799e-01 1.3588941097259521e-01</leafValues></_>
        <_>
          <internalNodes>
            0 -1 559 -3.8778877351433039e-03</internalNodes>
          <leafValues>
            -4.2537677288055420e-01 9.4309128820896149e-02</leafValues></_>
        <_>
          <internalNodes>
            0 -1 18 -8.5517868399620056e-02</internalNodes>
          <leafValues>
            3.0897060036659241e-01 -1.4386329054832458e-01</leafValues></_>
        <_>
          <internalNodes>
            0 -1 36 -1.9133896566927433e-03</internalNodes>
          <leafValues>
            -4.2779296636581421e-01 9.7806788980960846e-02</leafValues></_>
        <_>
          <internalNodes>
            0 -1 57 -5.7122963480651379e-03</internalNodes>
          <leafValues>
            -4.9758690595626831e-01 8.8917888700962067e-02</leafValues></_>
        <_>
          <internalNodes>
            0 -1 44 -3.5319086164236069e-03</internalNodes>
          <leafValues>
            -3.3832582831382751e-01 1.3153724372386932e-01</leafValues></_>
        <_>
          <internalNodes>
            0 -1 214 -5.2520770579576492e-02</internalNodes>
          <leafValues>
            5.3560596704483032e-01 -8.5185445845127106e-02</leafValues></_>
        <_>
          <internalNodes>
            0 -1 452 2.4301763623952866e-03</internalNodes>
          <leafValues>
            1.0822761058807373e-01 -3.8547283411026001e-01</leafValues></_>
        <_>
          <internalNodes>
            0 -1 439 -3.7118628621101379e-02</internalNodes>
          <leafValues>
            4.6729877591133118e-01 -9.8291918635368347e-02</leafValues></_>
        <_>
          <internalNodes>
            0 -1 325 -2.4228096008300781e-02</internalNodes>
          <leafValues>
            2.9985409975051880e-01 -1.3749836385250092e-01</leafValues></_>
        <_>
          <internalNodes>
            0 -1 327 7.5402125716209412e-02</internalNodes>
          <leafValues>
            -1.1393909156322479e-01 3.9815774559974670e-01</leafValues></_>
        <_>
          <internalNodes>
            0 -1 30 -5.2481889724731445e-04</internalNodes>
          <leafValues>
            -3.4164094924926758e-01 1.3799080252647400e-01</leafValues></_>
        <_>
          <internalNodes>
            0 -1 30 3.6187202204018831e-04</internalNodes>
          <leafValues>
            8.6444288492202759e-02 -3.6330053210258484e-01</leafValues></_>
        <_>
          <internalNodes>
            0 -1 530 -8.0226163845509291e-04</internalNodes>
          <leafValues>
            -4.5079705119132996e-01 9.1872505843639374e-02</leafValues></_>
        <_>
          <internalNodes>
            0 -1 38 -4.6008430421352386e-02</internalNodes>
          <leafValues>
            4.9510011076927185e-01 -7.4577637016773224e-02</leafValues></_>
        <_>
          <internalNodes>
            0 -1 95 1.5387723222374916e-02</internalNodes>
          <leafValues>
            -1.7573481798171997e-01 2.6486065983772278e-01</leafValues></_>
        <_>
          <internalNodes>
            0 -1 216 -5.4847151041030884e-03</internalNodes>
          <leafValues>
            3.5042214393615723e-01 -1.2518045306205750e-01</leafValues></_>
        <_>
          <internalNodes>
            0 -1 112 -1.5469917654991150e-01</internalNodes>
          <leafValues>
            6.5936499834060669e-01 -5.7031217962503433e-02</leafValues></_>
        <_>
          <internalNodes>
            0 -1 211 1.2054063379764557e-02</internalNodes>
          <leafValues>
            -9.5457717776298523e-02 3.7876936793327332e-01</leafValues></_>
        <_>
          <internalNodes>
            0 -1 152 -5.0328504294157028e-03</internalNodes>
          <leafValues>
            -3.5306337475776672e-01 1.1954006552696228e-01</leafValues></_>
        <_>
          <internalNodes>
            0 -1 478 4.6595927327871323e-02</internalNodes>
          <leafValues>
            -8.3446823060512543e-02 4.7705975174903870e-01</leafValues></_>
        <_>
          <internalNodes>
            0 -1 569 -3.7360290298238397e-04</internalNodes>
          <leafValues>
            -3.1172797083854675e-01 1.2443821877241135e-01</leafValues></_>
        <_>
          <internalNodes>
            0 -1 505 3.5716313868761063e-04</internalNodes>
          <leafValues>
            -1.5860356390476227e-01 2.2105233371257782e-01</leafValues></_>
        <_>
          <internalNodes>
            0 -1 543 -2.5550206191837788e-03</internalNodes>
          <leafValues>
            -5.7466775178909302e-01 6.3779212534427643e-02</leafValues></_>
        <_>
          <internalNodes>
            0 -1 196 -2.0327918231487274e-02</internalNodes>
          <leafValues>
            3.7892302870750427e-01 -9.5677234232425690e-02</leafValues></_></weakClassifiers></_>
    <!-- stage 3 -->
    <_>
      <maxWeakCount>33</maxWeakCount>
      <stageThreshold>-9.7735643386840820e-01</stageThreshold>
      <weakClassifiers>
        <_>
          <internalNodes>
            0 -1 29 2.5580599904060364e-01</internalNodes>
          <leafValues>
            -1.5555556118488312e-01 4.6268656849861145e-01</leafValues></_>
        <_>
          <internalNodes>
            0 -1 16 -5.6595634669065475e-04</internalNodes>
          <leafValues>
            -4.4155928492546082e-01 1.2066801637411118e-01</leafValues></_>
        <_>
          <internalNodes>
            0 -1 218 -9.3388177454471588e-02</internalNodes>
          <leafValues>
            3.6410453915596008e-01 -1.4004367589950562e-01</leafValues></_>
        <_>
          <internalNodes>
            0 -1 24 -7.1210354566574097e-02</internalNodes>
          <leafValues>
            4.3026173114776611e-01 -1.1855876445770264e-01</leafValues></_>
        <_>
          <internalNodes>
            0 -1 279 4.2819613590836525e-03</internalNodes>
          <leafValues>
            -1.0791537165641785e-01 4.5422467589378357e-01</leafValues></_>
        <_>
          <internalNodes>
            0 -1 47 -5.4816366173326969e-04</internalNodes>
          <leafValues>
            -3.4873628616333008e-01 1.4060376584529877e-01</leafValues></_>
        <_>
          <internalNodes>
            0 -1 228 -3.4370608627796173e-02</internalNodes>
          <leafValues>
            3.2779717445373535e-01 -1.4940209686756134e-01</leafValues></_>
        <_>
          <internalNodes>
            0 -1 224 7.7085220254957676e-03</internalNodes>
          <leafValues>
            -7.7277928590774536e-02 3.5465109348297119e-01</leafValues></_>
        <_>
          <internalNodes>
            0 -1 487 3.2694260880816728e-05</internalNodes>
          <leafValues>
            -2.0379005372524261e-01 1.9415068626403809e-01</leafValues></_>
        <_>
          <internalNodes>
            0 -1 540 2.2421053145080805e-03</internalNodes>
          <leafValues>
            5.4641231894493103e-02 -8.1792271137237549e-01</leafValues></_>
        <_>
          <internalNodes>
            0 -1 407 4.9437675625085831e-02</internalNodes>
          <leafValues>
            -6.2709547579288483e-02 5.3182238340377808e-01</leafValues></_>
        <_>
          <internalNodes>
            0 -1 548 -3.2727699726819992e-03</internalNodes>
          <leafValues>
            -3.1866717338562012e-01 1.1789250373840332e-01</leafValues></_>
        <_>
          <internalNodes>
            0 -1 558 -1.8514760304242373e-03</internalNodes>
          <leafValues>
            -3.6368015408515930e-01 9.9409833550453186e-02</leafValues></_>
        <_>
          <internalNodes>
            0 -1 387 -2.7521894662640989e-04</internalNodes>
          <leafValues>
            2.5401180982589722e-01 -1.4538270235061646e-01</leafValues></_>
        <_>
          <internalNodes>
            0 -1 556 8.8210683315992355e-03</internalNodes>
          <leafValues>
            6.4842067658901215e-02 -4.8238322138786316e-01</leafValues></_>
        <_>
          <internalNodes>
            0 -1 443 -1.4282901771366596e-02</internalNodes>
          <leafValues>
            3.0372351408004761e-01 -1.1827030032873154e-01</leafValues></_>
        <_>
          <internalNodes>
            0 -1 526 -2.2642661351710558e-03</internalNodes>
          <leafValues>
            -3.5994017124176025e-01 1.0425274819135666e-01</leafValues></_>
        <_>
          <internalNodes>
            0 -1 454 6.6735565662384033e-02</internalNodes>
          <leafValues>
            -7.3733478784561157e-02 5.8119571208953857e-01</leafValues></_>
        <_>
          <internalNodes>
            0 -1 522 -1.4280169125413522e-05</internalNodes>
          <leafValues>
            2.1224240958690643e-01 -1.8917617201805115e-01</leafValues></_>
        <_>
          <internalNodes>
            0 -1 40 -4.8415851779282093e-04</internalNodes>
          <leafValues>
            -3.2719933986663818e-01 1.0722539573907852e-01</leafValues></_>
        <_>
          <internalNodes>
            0 -1 34 6.6440820693969727e-02</internalNodes>
          <leafValues>
            -6.4521603286266327e-02 5.4710060358047485e-01</leafValues></_>
        <_>
          <internalNodes>
            0 -1 296 -7.9475692473351955e-04</internalNodes>
          <leafValues>
            4.1345477104187012e-01 -8.0295912921428680e-02</leafValues></_>
        <_>
          <internalNodes>
            0 -1 307 3.9868410676717758e-03</internalNodes>
          <leafValues>
            -6.5501675009727478e-02 5.1414990425109863e-01</leafValues></_>
        <_>
          <internalNodes>
            0 -1 100 -3.2699038274586201e-03</internalNodes>
          <leafValues>
            -4.2831626534461975e-01 8.3301924169063568e-02</leafValues></_>
        <_>
          <internalNodes>
            0 -1 345 -1.2446939200162888e-01</internalNodes>
          <leafValues>
            -6.2619501352310181e-01 4.5819111168384552e-02</leafValues></_>
        <_>
          <internalNodes>
            0 -1 125 1.7721853218972683e-03</internalNodes>
          <leafValues>
            8.9168921113014221e-02 -3.5804894566535950e-01</leafValues></_>
        <_>
          <internalNodes>
            0 -1 501 -3.0573231924790889e-05</internalNodes>
          <leafValues>
            2.2143919765949249e-01 -1.5391288697719574e-01</leafValues></_>
        <_>
          <internalNodes>
            0 -1 424 -2.1242208313196898e-03</internalNodes>
          <leafValues>
            2.6138946413993835e-01 -1.3241183757781982e-01</leafValues></_>
        <_>
          <internalNodes>
            0 -1 437 -4.8846295103430748e-03</internalNodes>
          <leafValues>
            -4.2453336715698242e-01 7.6737135648727417e-02</leafValues></_>
        <_>
          <internalNodes>
            0 -1 400 -2.0833045244216919e-02</internalNodes>
          <leafValues>
            6.8852239847183228e-01 -4.8171952366828918e-02</leafValues></_>
        <_>
          <internalNodes>
            0 -1 350 -1.3873953372240067e-02</internalNodes>
          <leafValues>
            2.5512984395027161e-01 -1.3316927850246429e-01</leafValues></_>
        <_>
          <internalNodes>
            0 -1 195 -5.1855482161045074e-03</internalNodes>
          <leafValues>
            5.7027989625930786e-01 -5.9137240052223206e-02</leafValues></_>
        <_>
          <internalNodes>
            0 -1 51 5.5921422317624092e-03</internalNodes>
          <leafValues>
            6.3677482306957245e-02 -5.4788261651992798e-01</leafValues></_></weakClassifiers></_>
    <!-- stage 4 -->
    <_>
      <maxWeakCount>50</maxWeakCount>
      <stageThreshold>-9.5573633909225464e-01</stageThreshold>
      <weakClassifiers>
        <_>
          <internalNodes>
            0 -1 22 -3.8827687967568636e-04</internalNodes>
          <leafValues>
            -3.5281836986541748e-01 5.5206149816513062e-02</leafValues></_>
        <_>
          <internalNodes>
            0 -1 308 -3.6381343379616737e-03</internalNodes>
          <leafValues>
            3.1751364469528198e-01 -1.0586846619844437e-01</leafValues></_>
        <_>
          <internalNodes>
            0 -1 389 -2.2803889587521553e-03</internalNodes>
          <leafValues>
            3.7043431401252747e-01 -8.5694760084152222e-02</leafValues></_>
        <_>
          <internalNodes>
            0 -1 207 -4.6620547771453857e-02</internalNodes>
          <leafValues>
            4.1728347539901733e-01 -9.2601783573627472e-02</leafValues></_>
        <_>
          <internalNodes>
            0 -1 418 -1.0963318496942520e-01</internalNodes>
          <leafValues>
            3.6044439673423767e-01 -1.0134504735469818e-01</leafValues></_>
        <_>
          <internalNodes>
            0 -1 459 1.1420307680964470e-02</internalNodes>
          <leafValues>
            -3.4618709236383438e-02 3.9024785161018372e-01</leafValues></_>
        <_>
          <internalNodes>
            0 -1 210 4.7374013811349869e-02</internalNodes>
          <leafValues>
            -7.8117333352565765e-02 5.1497739553451538e-01</leafValues></_>
        <_>
          <internalNodes>
            0 -1 366 4.4879810884594917e-03</internalNodes>
          <leafValues>
            -1.2831515073776245e-01 2.5493633747100830e-01</leafValues></_>
        <_>
          <internalNodes>
            0 -1 562 6.2203244306147099e-04</internalNodes>
          <leafValues>
            7.4284680187702179e-02 -3.5076165199279785e-01</leafValues></_>
        <_>
          <internalNodes>
            0 -1 301 -4.4955173507332802e-03</internalNodes>
          <leafValues>
            3.6454436182975769e-01 -6.3787132501602173e-02</leafValues></_>
        <_>
          <internalNodes>
            0 -1 248 1.3913710601627827e-02</internalNodes>
          <leafValues>
            -1.1120536178350449e-01 2.7645638585090637e-01</leafValues></_>
        <_>
          <internalNodes>
            0 -1 148 -8.8965389877557755e-03</internalNodes>
          <leafValues>
            2.3996739089488983e-01 -1.3523948192596436e-01</leafValues></_>
        <_>
          <internalNodes>
            0 -1 63 -4.3552130227908492e-04</internalNodes>
          <leafValues>
            -3.0892637372016907e-01 9.0948946774005890e-02</leafValues></_>
        <_>
          <internalNodes>
            0 -1 173 1.4891670085489750e-02</internalNodes>
          <leafValues>
            -7.5543232262134552e-02 3.4218800067901611e-01</leafValues></_>
        <_>
          <internalNodes>
            0 -1 225 -5.2231312729418278e-03</internalNodes>
          <leafValues>
            2.2196847200393677e-01 -1.4042100310325623e-01</leafValues></_>
        <_>
          <internalNodes>
            0 -1 184 1.7084382474422455e-02</internalNodes>
          <leafValues>
            5.8223120868206024e-02 -7.4026995897293091e-01</leafValues></_>
        <_>
          <internalNodes>
            0 -1 432 -2.8208699077367783e-03</internalNodes>
          <leafValues>
            4.9252465367317200e-01 -7.2734050452709198e-02</leafValues></_>
        <_>
          <internalNodes>
            0 -1 274 -3.5649586468935013e-02</internalNodes>
          <leafValues>
            3.4703287482261658e-01 -7.6950386166572571e-02</leafValues></_>
        <_>
          <internalNodes>
            0 -1 465 8.8112838566303253e-03</internalNodes>
          <leafValues>
            -7.2275169193744659e-02 3.9241907000541687e-01</leafValues></_>
        <_>
          <internalNodes>
            0 -1 62 2.6813137810677290e-04</internalNodes>
          <leafValues>
            1.1890703439712524e-01 -2.4038504064083099e-01</leafValues></_>
        <_>
          <internalNodes>
            0 -1 426 1.0922310873866081e-02</internalNodes>
          <leafValues>
            -8.2321360707283020e-02 4.1998261213302612e-01</leafValues></_>
        <_>
          <internalNodes>
            0 -1 10 -2.4085772037506104e-01</internalNodes>
          <leafValues>
            4.1991913318634033e-01 -6.5697766840457916e-02</leafValues></_>
        <_>
          <internalNodes>
            0 -1 108 3.5482756793498993e-02</internalNodes>
          <leafValues>
            -7.8425966203212738e-02 3.1753009557723999e-01</leafValues></_>
        <_>
          <internalNodes>
            0 -1 503 9.3808205565437675e-04</internalNodes>
          <leafValues>
            9.8636612296104431e-02 -2.8839913010597229e-01</leafValues></_>
        <_>
          <internalNodes>
            0 -1 141 -1.9386624917387962e-02</internalNodes>
          <leafValues>
            2.3476541042327881e-01 -1.2442499399185181e-01</leafValues></_>
        <_>
          <internalNodes>
            0 -1 277 -1.3296272605657578e-02</internalNodes>
          <leafValues>
            2.9170882701873779e-01 -1.2332155555486679e-01</leafValues></_>
        <_>
          <internalNodes>
            0 -1 145 -1.6681771376170218e-04</internalNodes>
          <leafValues>
            -2.0242962241172791e-01 1.5967465937137604e-01</leafValues></_>
        <_>
          <internalNodes>
            0 -1 508 2.8243227861821651e-03</internalNodes>
          <leafValues>
            6.2219109386205673e-02 -3.6108577251434326e-01</leafValues></_>
        <_>
          <internalNodes>
            0 -1 445 3.8821164052933455e-03</internalNodes>
          <leafValues>
            -7.5536675751209259e-02 3.3881279826164246e-01</leafValues></_>
        <_>
          <internalNodes>
            0 -1 323 -1.1254467070102692e-02</internalNodes>
          <leafValues>
            2.3312461376190186e-01 -1.1873184889554977e-01</leafValues></_>
        <_>
          <internalNodes>
            0 -1 421 -1.7979931086301804e-02</internalNodes>
          <leafValues>
            2.8398483991622925e-01 -9.2963919043540955e-02</leafValues></_>
        <_>
          <internalNodes>
            0 -1 557 -1.4747906243428588e-03</internalNodes>
          <leafValues>
            -5.0883346796035767e-01 5.3050179034471512e-02</leafValues></_>
        <_>
          <internalNodes>
            0 -1 139 -1.1867295950651169e-02</internalNodes>
          <leafValues>
            2.4803163111209869e-01 -1.1735746264457703e-01</leafValues></_>
        <_>
          <internalNodes>
            0 -1 204 -3.4018137957900763e-03</internalNodes>
          <leafValues>
            -5.6221991777420044e-01 5.7356476783752441e-02</leafValues></_>
        <_>
          <internalNodes>
            0 -1 460 3.5117676015943289e-03</internalNodes>
          <leafValues>
            4.7054048627614975e-02 -4.7574761509895325e-01</leafValues></_>
        <_>
          <internalNodes>
            0 -1 217 -1.1599848046898842e-02</internalNodes>
          <leafValues>
            2.3028334975242615e-01 -1.1701494455337524e-01</leafValues></_>
        <_>
          <internalNodes>
            0 -1 461 -5.4027891019359231e-04</internalNodes>
          <leafValues>
            -3.0260089039802551e-01 9.4160616397857666e-02</leafValues></_>
        <_>
          <internalNodes>
            0 -1 168 1.9263209542259574e-03</internalNodes>
          <leafValues>
            -8.2893088459968567e-02 3.8783052563667297e-01</leafValues></_>
        <_>
          <internalNodes>
            0 -1 128 1.2900989968329668e-03</internalNodes>
          <leafValues>
            9.9754013121128082e-02 -2.7420991659164429e-01</leafValues></_>
        <_>
          <internalNodes>
            0 -1 267 -1.2666018679738045e-02</internalNodes>
          <leafValues>
            6.4443755149841309e-01 -4.9659296870231628e-02</leafValues></_>
        <_>
          <internalNodes>
            0 -1 462 4.5546591281890869e-03</internalNodes>
          <leafValues>
            -1.1822658777236938e-01 2.2203268110752106e-01</leafValues></_>
        <_>
          <internalNodes>
            0 -1 37 2.9071934986859560e-03</internalNodes>
          <leafValues>
            7.3915094137191772e-02 -3.5048121213912964e-01</leafValues></_>
        <_>
          <internalNodes>
            0 -1 367 -1.1110756546258926e-02</internalNodes>
          <leafValues>
            4.0823417901992798e-01 -7.1291245520114899e-02</leafValues></_>
        <_>
          <internalNodes>
            0 -1 90 -4.3464107438921928e-03</internalNodes>
          <leafValues>
            4.3609833717346191e-01 -5.7947341352701187e-02</leafValues></_>
        <_>
          <internalNodes>
            0 -1 78 2.1320867817848921e-03</internalNodes>
          <leafValues>
            -1.4456339180469513e-01 1.8297669291496277e-01</leafValues></_>
        <_>
          <internalNodes>
            0 -1 117 -3.1210839748382568e-02</internalNodes>
          <leafValues>
            -1. 2.4226082488894463e-02</leafValues></_>
        <_>
          <internalNodes>
            0 -1 82 -1.9301066175103188e-02</internalNodes>
          <leafValues>
            4.4514888525009155e-01 -7.0865288376808167e-02</leafValues></_>
        <_>
          <internalNodes>
            0 -1 337 9.3013187870383263e-03</internalNodes>
          <leafValues>
            -5.4358549416065216e-02 4.2959728837013245e-01</leafValues></_>
        <_>
          <internalNodes>
            0 -1 66 -6.2259775586426258e-04</internalNodes>
          <leafValues>
            -2.4850773811340332e-01 1.0425537079572678e-01</leafValues></_>
        <_>
          <internalNodes>
            0 -1 0 5.7651451788842678e-04</internalNodes>
          <leafValues>
            7.0173665881156921e-02 -3.7277770042419434e-01</leafValues></_></weakClassifiers></_>
    <!-- stage 5 -->
    <_>
      <maxWeakCount>35</maxWeakCount>
      <stageThreshold>-8.5387653112411499e-01</stageThreshold>
      <weakClassifiers>
        <_>
          <internalNodes>
            0 -1 413 -5.0928518176078796e-03</internalNodes>
          <leafValues>
            -5.9405940771102905e-01 1.7564402893185616e-02</leafValues></_>
        <_>
          <internalNodes>
            0 -1 288 5.6911166757345200e-02</internalNodes>
          <leafValues>
            -3.6485109478235245e-02 5.6240397691726685e-01</leafValues></_>
        <_>
          <internalNodes>
            0 -1 276 -6.9147393107414246e-02</internalNodes>
          <leafValues>
            4.3342080712318420e-01 -9.4887755811214447e-02</leafValues></_>
        <_>
          <internalNodes>
            0 -1 104 1.0777834802865982e-02</internalNodes>
          <leafValues>
            4.5669492334127426e-02 -6.8741542100906372e-01</leafValues></_>
        <_>
          <internalNodes>
            0 -1 200 4.7198100946843624e-03</internalNodes>
          <leafValues>
            -1.6613021492958069e-01 2.5613874197006226e-01</leafValues></_>
        <_>
          <internalNodes>
            0 -1 154 4.4701527804136276e-03</internalNodes>
          <leafValues>
            6.0844048857688904e-02 -5.1333582401275635e-01</leafValues></_>
        <_>
          <internalNodes>
            0 -1 19 9.4724208116531372e-02</internalNodes>
          <leafValues>
            -7.7005319297313690e-02 4.2183274030685425e-01</leafValues></_>
        <_>
          <internalNodes>
            0 -1 417 6.3393011689186096e-02</internalNodes>
          <leafValues>
            -6.4239829778671265e-02 5.4241967201232910e-01</leafValues></_>
        <_>
          <internalNodes>
            0 -1 502 -5.9863710775971413e-03</internalNodes>
          <leafValues>
            -3.6466953158378601e-01 9.8116174340248108e-02</leafValues></_>
        <_>
          <internalNodes>
            0 -1 294 -3.6716237082146108e-04</internalNodes>
          <leafValues>
            2.5681561231613159e-01 -1.3679146766662598e-01</leafValues></_>
        <_>
          <internalNodes>
            0 -1 120 -7.4504703283309937e-02</internalNodes>
          <leafValues>
            -7.6677900552749634e-01 3.2157279551029205e-02</leafValues></_>
        <_>
          <internalNodes>
            0 -1 310 4.3656255002133548e-04</internalNodes>
          <leafValues>
            -1.4210225641727448e-01 1.9802889227867126e-01</leafValues></_>
        <_>
          <internalNodes>
            0 -1 256 1.4178610406816006e-02</internalNodes>
          <leafValues>
            -1.2184365093708038e-01 3.0354073643684387e-01</leafValues></_>
        <_>
          <internalNodes>
            0 -1 552 2.5599724613130093e-03</internalNodes>
          <leafValues>
            5.4791752249002457e-02 -6.3853037357330322e-01</leafValues></_>
        <_>
          <internalNodes>
            0 -1 81 1.0409347712993622e-02</internalNodes>
          <leafValues>
            5.3983006626367569e-02 -4.8206016421318054e-01</leafValues></_>
        <_>
          <internalNodes>
            0 -1 76 2.6888974389294162e-05</internalNodes>
          <leafValues>
            -1.7455174028873444e-01 1.6969601809978485e-01</leafValues></_>
        <_>
          <internalNodes>
            0 -1 75 6.0181069420650601e-04</internalNodes>
          <leafValues>
            8.6788065731525421e-02 -3.8214829564094543e-01</leafValues></_>
        <_>
          <internalNodes>
            0 -1 336 -5.2443594904616475e-04</internalNodes>
          <leafValues>
            2.9209867119789124e-01 -1.0382114350795746e-01</leafValues></_>
        <_>
          <internalNodes>
            0 -1 525 -6.0220677405595779e-03</internalNodes>
          <leafValues>
            -7.7481096982955933e-01 4.3827947229146957e-02</leafValues></_>
        <_>
          <internalNodes>
            0 -1 352 -9.1313645243644714e-02</internalNodes>
          <leafValues>
            -8.4973418712615967e-01 2.2782851010560989e-02</leafValues></_>
        <_>
          <internalNodes>
            0 -1 353 -1.5326754190027714e-02</internalNodes>
          <leafValues>
            3.0675020813941956e-01 -1.0258231312036514e-01</leafValues></_>
        <_>
          <internalNodes>
            0 -1 357 -6.8905111402273178e-04</internalNodes>
          <leafValues>
            1.9192045927047729e-01 -1.5046635270118713e-01</leafValues></_>
        <_>
          <internalNodes>
            0 -1 46 5.8967906981706619e-02</internalNodes>
          <leafValues>
            4.2142421007156372e-02 -7.1850645542144775e-01</leafValues></_>
        <_>
          <internalNodes>
            0 -1 488 2.1382684353739023e-03</internalNodes>
          <leafValues>
            5.4375968873500824e-02 -4.2745637893676758e-01</leafValues></_>
        <_>
          <internalNodes>
            0 -1 489 -2.0186560868751258e-04</internalNodes>
          <leafValues>
            1.7809399962425232e-01 -1.7052477598190308e-01</leafValues></_>
        <_>
          <internalNodes>
            0 -1 87 -1.7433972097933292e-03</internalNodes>
          <leafValues>
            2.0078316330909729e-01 -1.3296471536159515e-01</leafValues></_>
        <_>
          <internalNodes>
            0 -1 553 2.8447415679693222e-03</internalNodes>
          <leafValues>
            7.1876950562000275e-02 -3.7087917327880859e-01</leafValues></_>
        <_>
          <internalNodes>
            0 -1 58 -1.0960703715682030e-02</internalNodes>
          <leafValues>
            -7.5970560312271118e-01 3.2865099608898163e-02</leafValues></_>
        <_>
          <internalNodes>
            0 -1 371 1.0705576278269291e-03</internalNodes>
          <leafValues>
            -1.3648983836174011e-01 2.2387447953224182e-01</leafValues></_>
        <_>
          <internalNodes>
            0 -1 192 2.9191989451646805e-02</internalNodes>
          <leafValues>
            -1.0050476342439651e-01 2.9565897583961487e-01</leafValues></_>
        <_>
          <internalNodes>
            0 -1 155 2.5457493029534817e-04</internalNodes>
          <leafValues>
            -1.4394949376583099e-01 2.2080452740192413e-01</leafValues></_>
        <_>
          <internalNodes>
            0 -1 379 -1.6747271642088890e-02</internalNodes>
          <leafValues>
            4.1914197802543640e-01 -7.4464462697505951e-02</leafValues></_>
        <_>
          <internalNodes>
            0 -1 351 1.4629504876211286e-03</internalNodes>
          <leafValues>
            -1.4941112697124481e-01 2.2090521454811096e-01</leafValues></_>
        <_>
          <internalNodes>
            0 -1 25 -2.2683281451463699e-02</internalNodes>
          <leafValues>
            3.2364735007286072e-01 -9.1433681547641754e-02</leafValues></_>
        <_>
          <internalNodes>
            0 -1 271 -1.2227508705109358e-03</internalNodes>
          <leafValues>
            2.2312133014202118e-01 -1.4220295846462250e-01</leafValues></_></weakClassifiers></_>
    <!-- stage 6 -->
    <_>
      <maxWeakCount>39</maxWeakCount>
      <stageThreshold>-1.0248340368270874e+00</stageThreshold>
      <weakClassifiers>
        <_>
          <internalNodes>
            0 -1 528 -2.0106043666601181e-03</internalNodes>
          <leafValues>
            -5.0150150060653687e-01 4.8826888203620911e-02</leafValues></_>
        <_>
          <internalNodes>
            0 -1 203 7.8370899427682161e-04</internalNodes>
          <leafValues>
            9.0438365936279297e-02 -4.7639870643615723e-01</leafValues></_>
        <_>
          <internalNodes>
            0 -1 474 6.8315275711938739e-04</internalNodes>
          <leafValues>
            1.4195814728736877e-01 -3.4550660848617554e-01</leafValues></_>
        <_>
          <internalNodes>
            0 -1 473 -3.2345560612156987e-04</internalNodes>
          <leafValues>
            -3.2239162921905518e-01 1.8987055122852325e-01</leafValues></_>
        <_>
          <internalNodes>
            0 -1 203 -3.0130683444440365e-04</internalNodes>
          <leafValues>
            -3.3427068591117859e-01 1.1947102844715118e-01</leafValues></_>
        <_>
          <internalNodes>
            0 -1 286 -3.4069515764713287e-02</internalNodes>
          <leafValues>
            5.1335698366165161e-01 -9.3649379909038544e-02</leafValues></_>
        <_>
          <internalNodes>
            0 -1 376 -1.1522789299488068e-01</internalNodes>
          <leafValues>
            3.1243166327476501e-01 -1.2903958559036255e-01</leafValues></_>
        <_>
          <internalNodes>
            0 -1 293 3.7609739229083061e-03</internalNodes>
          <leafValues>
            -9.2390872538089752e-02 3.9473626017570496e-01</leafValues></_>
        <_>
          <internalNodes>
            0 -1 31 2.4005733430385590e-03</internalNodes>
          <leafValues>
            1.0487945377826691e-01 -3.3553299307823181e-01</leafValues></_>
        <_>
          <internalNodes>
            0 -1 14 -5.0507795810699463e-01</internalNodes>
          <leafValues>
            7.8302538394927979e-01 -2.1587068215012550e-02</leafValues></_>
        <_>
          <internalNodes>
            0 -1 319 -1.8703236710280180e-03</internalNodes>
          <leafValues>
            3.1969416141510010e-01 -1.2033022940158844e-01</leafValues></_>
        <_>
          <internalNodes>
            0 -1 54 3.8646173197776079e-03</internalNodes>
          <leafValues>
            7.3589734733104706e-02 -4.4417199492454529e-01</leafValues></_>
        <_>
          <internalNodes>
            0 -1 3 4.1356477886438370e-03</internalNodes>
          <leafValues>
            7.9249620437622070e-02 -4.6233516931533813e-01</leafValues></_>
        <_>
          <internalNodes>
            0 -1 377 -2.6130967307835817e-03</internalNodes>
          <leafValues>
            3.2467454671859741e-01 -1.0534821450710297e-01</leafValues></_>
        <_>
          <internalNodes>
            0 -1 524 -1.0691431816667318e-03</internalNodes>
          <leafValues>
            -2.5509145855903625e-01 1.4075529575347900e-01</leafValues></_>
        <_>
          <internalNodes>
            0 -1 2 -1.8974673002958298e-03</internalNodes>
          <leafValues>
            -3.8972520828247070e-01 7.9406403005123138e-02</leafValues></_>
        <_>
          <internalNodes>
            0 -1 378 -2.5697778910398483e-03</internalNodes>
          <leafValues>
            -5.9672307968139648e-01 5.5103972554206848e-02</leafValues></_>
        <_>
          <internalNodes>
            0 -1 385 -9.5385912572965026e-04</internalNodes>
          <leafValues>
            4.3532788753509521e-01 -7.0715315639972687e-02</leafValues></_>
        <_>
          <internalNodes>
            0 -1 264 -9.5321852713823318e-03</internalNodes>
          <leafValues>
            -3.4374782443046570e-01 8.1997700035572052e-02</leafValues></_>
        <_>
          <internalNodes>
            0 -1 532 4.4714966788887978e-03</internalNodes>
          <leafValues>
            7.4623465538024902e-02 -3.9655193686485291e-01</leafValues></_>
        <_>
          <internalNodes>
            0 -1 56 -3.5514016635715961e-03</internalNodes>
          <leafValues>
            -4.3480902910232544e-01 6.1373587697744370e-02</leafValues></_>
        <_>
          <internalNodes>
            0 -1 405 4.9610994756221771e-04</internalNodes>
          <leafValues>
            -1.0571587830781937e-01 2.8044366836547852e-01</leafValues></_>
        <_>
          <internalNodes>
            0 -1 105 -4.4531254097819328e-03</internalNodes>
          <leafValues>
            -8.3303046226501465e-01 3.3216666430234909e-02</leafValues></_>
        <_>
          <internalNodes>
            0 -1 79 5.4440973326563835e-03</internalNodes>
          <leafValues>
            6.3425727188587189e-02 -4.2303234338760376e-01</leafValues></_>
        <_>
          <internalNodes>
            0 -1 455 -5.2408105693757534e-04</internalNodes>
          <leafValues>
            2.8505676984786987e-01 -1.1220440268516541e-01</leafValues></_>
        <_>
          <internalNodes>
            0 -1 564 2.2799624130129814e-03</internalNodes>
          <leafValues>
            7.6528385281562805e-02 -4.2901411652565002e-01</leafValues></_>
        <_>
          <internalNodes>
            0 -1 509 4.0703820995986462e-03</internalNodes>
          <leafValues>
            4.6678453683853149e-02 -5.7410091161727905e-01</leafValues></_>
        <_>
          <internalNodes>
            0 -1 209 9.2436349950730801e-04</internalNodes>
          <leafValues>
            -9.8618432879447937e-02 3.3721333742141724e-01</leafValues></_>
        <_>
          <internalNodes>
            0 -1 491 -1.2654255842790008e-03</internalNodes>
          <leafValues>
            -2.5700607895851135e-01 1.1314104497432709e-01</leafValues></_>
        <_>
          <internalNodes>
            0 -1 230 1.6837087459862232e-03</internalNodes>
          <leafValues>
            -8.5724912583827972e-02 3.5653385519981384e-01</leafValues></_>
        <_>
          <internalNodes>
            0 -1 164 1.5035226009786129e-02</internalNodes>
          <leafValues>
            -8.7036371231079102e-02 3.3932512998580933e-01</leafValues></_>
        <_>
          <internalNodes>
            0 -1 304 3.4856831189244986e-03</internalNodes>
          <leafValues>
            -1.5202152729034424e-01 1.9233319163322449e-01</leafValues></_>
        <_>
          <internalNodes>
            0 -1 69 2.5998163037002087e-03</internalNodes>
          <leafValues>
            6.2006533145904541e-02 -4.7761496901512146e-01</leafValues></_>
        <_>
          <internalNodes>
            0 -1 368 -4.0356285171583295e-04</internalNodes>
          <leafValues>
            1.8323439359664917e-01 -1.5765112638473511e-01</leafValues></_>
        <_>
          <internalNodes>
            0 -1 182 4.2252833954989910e-03</internalNodes>
          <leafValues>
            -1.0191220045089722e-01 3.1259706616401672e-01</leafValues></_>
        <_>
          <internalNodes>
            0 -1 5 1.7824843525886536e-03</internalNodes>
          <leafValues>
            8.0439768731594086e-02 -3.8028687238693237e-01</leafValues></_>
        <_>
          <internalNodes>
            0 -1 373 4.3915268033742905e-03</internalNodes>
          <leafValues>
            6.6511757671833038e-02 -4.4286096096038818e-01</leafValues></_>
        <_>
          <internalNodes>
            0 -1 356 -5.1335734315216541e-04</internalNodes>
          <leafValues>
            2.9315465688705444e-01 -1.0065431892871857e-01</leafValues></_>
        <_>
          <internalNodes>
            0 -1 289 -5.6590795516967773e-02</internalNodes>
          <leafValues>
            2.9171600937843323e-01 -1.1137295514345169e-01</leafValues></_></weakClassifiers></_>
    <!-- stage 7 -->
    <_>
      <maxWeakCount>46</maxWeakCount>
      <stageThreshold>-1.0213903188705444e+00</stageThreshold>
      <weakClassifiers>
        <_>
          <internalNodes>
            0 -1 237 -2.7563851326704025e-02</internalNodes>
          <leafValues>
            2.9729729890823364e-01 -1.6305108368396759e-01</leafValues></_>
        <_>
          <internalNodes>
            0 -1 246 1.0793743655085564e-02</internalNodes>
          <leafValues>
            -1.3767898082733154e-01 3.0674430727958679e-01</leafValues></_>
        <_>
          <internalNodes>
            0 -1 146 4.7217220999300480e-03</internalNodes>
          <leafValues>
            -1.1875746399164200e-01 3.3155083656311035e-01</leafValues></_>
        <_>
          <internalNodes>
            0 -1 198 -1.5502014430239797e-03</internalNodes>
          <leafValues>
            2.3990428447723389e-01 -1.8173088133335114e-01</leafValues></_>
        <_>
          <internalNodes>
            0 -1 258 -7.0226466050371528e-04</internalNodes>
          <leafValues>
            4.1107460856437683e-01 -4.5713126659393311e-02</leafValues></_>
        <_>
          <internalNodes>
            0 -1 359 3.6345014814287424e-03</internalNodes>
          <leafValues>
            -1.1590014398097992e-01 3.4936836361885071e-01</leafValues></_>
        <_>
          <internalNodes>
            0 -1 269 3.3100572181865573e-04</internalNodes>
          <leafValues>
            -7.1960568428039551e-02 3.1365025043487549e-01</leafValues></_>
        <_>
          <internalNodes>
            0 -1 251 2.0530587062239647e-03</internalNodes>
          <leafValues>
            -8.6174242198467255e-02 4.1076862812042236e-01</leafValues></_>
        <_>
          <internalNodes>
            0 -1 544 1.5231621218845248e-03</internalNodes>
          <leafValues>
            1.0335399955511093e-01 -3.6174276471138000e-01</leafValues></_>
        <_>
          <internalNodes>
            0 -1 471 2.1732654422521591e-03</internalNodes>
          <leafValues>
            7.5488708913326263e-02 -3.7118402123451233e-01</leafValues></_>
        <_>
          <internalNodes>
            0 -1 28 -1.0207219421863556e-01</internalNodes>
          <leafValues>
            5.4252624511718750e-01 -4.1937716305255890e-02</leafValues></_>
        <_>
          <internalNodes>
            0 -1 282 -4.6088565140962601e-03</internalNodes>
          <leafValues>
            3.9055112004280090e-01 -8.3329014480113983e-02</leafValues></_>
        <_>
          <internalNodes>
            0 -1 406 -1.3031973503530025e-03</internalNodes>
          <leafValues>
            4.7173801064491272e-01 -4.8973858356475830e-02</leafValues></_>
        <_>
          <internalNodes>
            0 -1 129 -3.1457163393497467e-02</internalNodes>
          <leafValues>
            -5.0148838758468628e-01 6.4072825014591217e-02</leafValues></_>
        <_>
          <internalNodes>
            0 -1 153 -1.0191394016146660e-02</internalNodes>
          <leafValues>
            -3.1323072314262390e-01 9.5790207386016846e-02</leafValues></_>
        <_>
          <internalNodes>
            0 -1 48 1.2682694010436535e-02</internalNodes>
          <leafValues>
            -1.1537069082260132e-01 2.3502241075038910e-01</leafValues></_>
        <_>
          <internalNodes>
            0 -1 446 3.8713315734639764e-04</internalNodes>
          <leafValues>
            -1.1599662154912949e-01 2.4786861240863800e-01</leafValues></_>
        <_>
          <internalNodes>
            0 -1 561 8.7982497643679380e-04</internalNodes>
          <leafValues>
            5.9649419039487839e-02 -4.4072127342224121e-01</leafValues></_>
        <_>
          <internalNodes>
            0 -1 372 -6.2709895428270102e-04</internalNodes>
          <leafValues>
            -3.2889065146446228e-01 7.5895301997661591e-02</leafValues></_>
        <_>
          <internalNodes>
            0 -1 412 1.5347314998507500e-02</internalNodes>
          <leafValues>
            -3.3892605453729630e-02 7.3571950197219849e-01</leafValues></_>
        <_>
          <internalNodes>
            0 -1 306 4.2294291779398918e-04</internalNodes>
          <leafValues>
            -9.2831850051879883e-02 2.8161993622779846e-01</leafValues></_>
        <_>
          <internalNodes>
            0 -1 414 -1.9807711243629456e-02</internalNodes>
          <leafValues>
            2.5361418724060059e-01 -1.0989060252904892e-01</leafValues></_>
        <_>
          <internalNodes>
            0 -1 165 -3.4474430140107870e-03</internalNodes>
          <leafValues>
            1.7241334915161133e-01 -1.4129985868930817e-01</leafValues></_>
        <_>
          <internalNodes>
            0 -1 290 -3.6783958785235882e-03</internalNodes>
          <leafValues>
            2.8789946436882019e-01 -8.5737034678459167e-02</leafValues></_>
        <_>
          <internalNodes>
            0 -1 72 -2.4678974295966327e-04</internalNodes>
          <leafValues>
            -2.9055774211883545e-01 1.0122502595186234e-01</leafValues></_>
        <_>
          <internalNodes>
            0 -1 241 1.6209173947572708e-02</internalNodes>
          <leafValues>
            -4.7301348298788071e-02 7.2730964422225952e-01</leafValues></_>
        <_>
          <internalNodes>
            0 -1 130 1.3241518900031224e-05</internalNodes>
          <leafValues>
            -1.5694864094257355e-01 1.7256015539169312e-01</leafValues></_>
        <_>
          <internalNodes>
            0 -1 74 3.1444090418517590e-03</internalNodes>
          <leafValues>
            8.2319259643554688e-02 -3.2813662290573120e-01</leafValues></_>
        <_>
          <internalNodes>
            0 -1 252 -7.5466837733983994e-04</internalNodes>
          <leafValues>
            3.4977576136589050e-01 -8.6396604776382446e-02</leafValues></_>
        <_>
          <internalNodes>
            0 -1 107 -3.4962497651576996e-02</internalNodes>
          <leafValues>
            -8.4138369560241699e-01 3.6711804568767548e-02</leafValues></_>
        <_>
          <internalNodes>
            0 -1 507 3.3283017575740814e-02</internalNodes>
          <leafValues>
            -4.6809136867523193e-02 6.5316826105117798e-01</leafValues></_>
        <_>
          <internalNodes>
            0 -1 428 -5.1725311204791069e-03</internalNodes>
          <leafValues>
            2.9644075036048889e-01 -7.6249733567237854e-02</leafValues></_>
        <_>
          <internalNodes>
            0 -1 531 1.3532266893889755e-04</internalNodes>
          <leafValues>
            1.1048693209886551e-01 -2.2470435500144958e-01</leafValues></_>
        <_>
          <internalNodes>
            0 -1 101 -1.1969552360824309e-05</internalNodes>
          <leafValues>
            1.8020123243331909e-01 -1.4122354984283447e-01</leafValues></_>
        <_>
          <internalNodes>
            0 -1 49 -1.0776163544505835e-03</internalNodes>
          <leafValues>
            -2.5923889875411987e-01 1.1010160297155380e-01</leafValues></_>
        <_>
          <internalNodes>
            0 -1 27 -3.8608551025390625e-02</internalNodes>
          <leafValues>
            4.1414111852645874e-01 -6.1183162033557892e-02</leafValues></_>
        <_>
          <internalNodes>
            0 -1 340 1.7277798615396023e-03</internalNodes>
          <leafValues>
            -1.1071919649839401e-01 2.3189450800418854e-01</leafValues></_>
        <_>
          <internalNodes>
            0 -1 435 1.1369884014129639e-02</internalNodes>
          <leafValues>
            4.6038664877414703e-02 -5.6327766180038452e-01</leafValues></_>
        <_>
          <internalNodes>
            0 -1 458 -9.1043766587972641e-03</internalNodes>
          <leafValues>
            3.5776773095130920e-01 -7.3479555547237396e-02</leafValues></_>
        <_>
          <internalNodes>
            0 -1 199 -2.1263761445879936e-03</internalNodes>
          <leafValues>
            1.8842183053493500e-01 -1.3304521143436432e-01</leafValues></_>
        <_>
          <internalNodes>
            0 -1 138 9.5989294350147247e-03</internalNodes>
          <leafValues>
            4.4866349548101425e-02 -5.7778823375701904e-01</leafValues></_>
        <_>
          <internalNodes>
            0 -1 278 3.6771292798221111e-03</internalNodes>
          <leafValues>
            -1.0627284646034241e-01 2.5703245401382446e-01</leafValues></_>
        <_>
          <internalNodes>
            0 -1 547 -1.4455129530688282e-05</internalNodes>
          <leafValues>
            1.8326696753501892e-01 -1.4337006211280823e-01</leafValues></_>
        <_>
          <internalNodes>
            0 -1 554 4.0783948497846723e-04</internalNodes>
          <leafValues>
            9.1762706637382507e-02 -3.0075711011886597e-01</leafValues></_>
        <_>
          <internalNodes>
            0 -1 185 6.8409768864512444e-03</internalNodes>
          <leafValues>
            6.1959631741046906e-02 -4.0930750966072083e-01</leafValues></_>
        <_>
          <internalNodes>
            0 -1 157 -8.7201502174139023e-03</internalNodes>
          <leafValues>
            -5.7255750894546509e-01 4.2227059602737427e-02</leafValues></_></weakClassifiers></_>
    <!-- stage 8 -->
    <_>
      <maxWeakCount>37</maxWeakCount>
      <stageThreshold>-9.9071687459945679e-01</stageThreshold>
      <weakClassifiers>
        <_>
          <internalNodes>
            0 -1 494 -2.5411956812604330e-05</internalNodes>
          <leafValues>
            1.9249999523162842e-01 -2.1981981396675110e-01</leafValues></_>
        <_>
          <internalNodes>
            0 -1 261 1.2779878452420235e-03</internalNodes>
          <leafValues>
            -1.2294928729534149e-01 3.3949401974678040e-01</leafValues></_>
        <_>
          <internalNodes>
            0 -1 262 3.1424882763531059e-05</internalNodes>
          <leafValues>
            -1.7254771292209625e-01 2.4703255295753479e-01</leafValues></_>
        <_>
          <internalNodes>
            0 -1 260 -1.0376292266300879e-05</internalNodes>
          <leafValues>
            2.0822817087173462e-01 -1.8683332204818726e-01</leafValues></_>
        <_>
          <internalNodes>
            0 -1 260 1.3061383469903376e-05</internalNodes>
          <leafValues>
            -1.5838959813117981e-01 2.3924793303012848e-01</leafValues></_>
        <_>
          <internalNodes>
            0 -1 391 7.5351730920374393e-03</internalNodes>
          <leafValues>
            -5.0829563289880753e-02 3.6990705132484436e-01</leafValues></_>
        <_>
          <internalNodes>
            0 -1 410 -6.8351142108440399e-03</internalNodes>
          <leafValues>
            3.5772565007209778e-01 -1.7229622602462769e-01</leafValues></_>
        <_>
          <internalNodes>
            0 -1 447 -9.8642837256193161e-03</internalNodes>
          <leafValues>
            3.3183941245079041e-01 -1.1942052096128464e-01</leafValues></_>
        <_>
          <internalNodes>
            0 -1 35 -2.8916874527931213e-01</internalNodes>
          <leafValues>
            5.0222027301788330e-01 -6.5384663641452789e-02</leafValues></_>
        <_>
          <internalNodes>
            0 -1 122 -4.6639880165457726e-03</internalNodes>
          <leafValues>
            3.7607604265213013e-01 -8.9178189635276794e-02</leafValues></_>
        <_>
          <internalNodes>
            0 -1 380 7.4153050081804395e-04</internalNodes>
          <leafValues>
            -4.9604080617427826e-02 4.2145511507987976e-01</leafValues></_>
        <_>
          <internalNodes>
            0 -1 370 -1.3598848599940538e-03</internalNodes>
          <leafValues>
            3.1319355964660645e-01 -1.0017187893390656e-01</leafValues></_>
        <_>
          <internalNodes>
            0 -1 334 5.0042476505041122e-04</internalNodes>
          <leafValues>
            -1.0457521677017212e-01 3.0141484737396240e-01</leafValues></_>
        <_>
          <internalNodes>
            0 -1 121 -5.0964253023266792e-03</internalNodes>
          <leafValues>
            2.8986325860023499e-01 -9.4205938279628754e-02</leafValues></_>
        <_>
          <internalNodes>
            0 -1 467 1.3404198689386249e-03</internalNodes>
          <leafValues>
            -1.1484451591968536e-01 2.6992622017860413e-01</leafValues></_>
        <_>
          <internalNodes>
            0 -1 470 -3.1139778002398089e-05</internalNodes>
          <leafValues>
            1.7576627433300018e-01 -1.6487787663936615e-01</leafValues></_>
        <_>
          <internalNodes>
            0 -1 348 3.2609939808025956e-05</internalNodes>
          <leafValues>
            -1.3518084585666656e-01 2.0511372387409210e-01</leafValues></_>
        <_>
          <internalNodes>
            0 -1 265 -1.0359140112996101e-02</internalNodes>
          <leafValues>
            4.1315907239913940e-01 -7.2587512433528900e-02</leafValues></_>
        <_>
          <internalNodes>
            0 -1 247 8.9627734269015491e-05</internalNodes>
          <leafValues>
            -1.4934335649013519e-01 1.9974195957183838e-01</leafValues></_>
        <_>
          <internalNodes>
            0 -1 331 -7.3453021468594670e-04</internalNodes>
          <leafValues>
            2.3174434900283813e-01 -1.2666575610637665e-01</leafValues></_>
        <_>
          <internalNodes>
            0 -1 215 1.3709124177694321e-03</internalNodes>
          <leafValues>
            -7.8091032803058624e-02 3.3997681736946106e-01</leafValues></_>
        <_>
          <internalNodes>
            0 -1 126 -5.2594795124605298e-04</internalNodes>
          <leafValues>
            3.8936212658882141e-01 -7.4092239141464233e-02</leafValues></_>
        <_>
          <internalNodes>
            0 -1 16 -5.8637262554839253e-04</internalNodes>
          <leafValues>
            -3.8939747214317322e-01 8.4881037473678589e-02</leafValues></_>
        <_>
          <internalNodes>
            0 -1 133 -1.0384260118007660e-01</internalNodes>
          <leafValues>
            3.7735962867736816e-01 -8.4631443023681641e-02</leafValues></_>
        <_>
          <internalNodes>
            0 -1 116 1.1969552360824309e-05</internalNodes>
          <leafValues>
            -1.7467078566551208e-01 1.8692491948604584e-01</leafValues></_>
        <_>
          <internalNodes>
            0 -1 311 -7.1549910353496671e-04</internalNodes>
          <leafValues>
            3.5829180479049683e-01 -8.0648370087146759e-02</leafValues></_>
        <_>
          <internalNodes>
            0 -1 114 -1.3490305718732998e-05</internalNodes>
          <leafValues>
            1.9673198461532593e-01 -1.4458104968070984e-01</leafValues></_>
        <_>
          <internalNodes>
            0 -1 361 -2.5094065815210342e-02</internalNodes>
          <leafValues>
            2.3096922039985657e-01 -1.2197154760360718e-01</leafValues></_>
        <_>
          <internalNodes>
            0 -1 119 5.2006496116518974e-03</internalNodes>
          <leafValues>
            5.5405739694833755e-02 -5.0930172204971313e-01</leafValues></_>
        <_>
          <internalNodes>
            0 -1 479 -1.7153054941445589e-03</internalNodes>
          <leafValues>
            5.0678646564483643e-01 -6.5350681543350220e-02</leafValues></_>
        <_>
          <internalNodes>
            0 -1 227 8.8243670761585236e-03</internalNodes>
          <leafValues>
            -7.6438456773757935e-02 3.7808623909950256e-01</leafValues></_>
        <_>
          <internalNodes>
            0 -1 456 -5.9858467429876328e-03</internalNodes>
          <leafValues>
            2.4183735251426697e-01 -1.1675877124071121e-01</leafValues></_>
        <_>
          <internalNodes>
            0 -1 416 1.9756186753511429e-02</internalNodes>
          <leafValues>
            -1.2520962953567505e-01 2.7453038096427917e-01</leafValues></_>
        <_>
          <internalNodes>
            0 -1 342 -2.7401238912716508e-04</internalNodes>
          <leafValues>
            2.3897498846054077e-01 -1.1518070101737976e-01</leafValues></_>
        <_>
          <internalNodes>
            0 -1 131 2.0271886605769396e-03</internalNodes>
          <leafValues>
            7.0282123982906342e-02 -4.1268867254257202e-01</leafValues></_>
        <_>
          <internalNodes>
            0 -1 169 -7.7134603634476662e-03</internalNodes>
          <leafValues>
            1.8822933733463287e-01 -1.4103962481021881e-01</leafValues></_>
        <_>
          <internalNodes>
            0 -1 94 -8.5246108938008547e-05</internalNodes>
          <leafValues>
            1.9882121682167053e-01 -1.3643217086791992e-01</leafValues></_></weakClassifiers></_>
    <!-- stage 9 -->
    <_>
      <maxWeakCount>46</maxWeakCount>
      <stageThreshold>-8.3500689268112183e-01</stageThreshold>
      <weakClassifiers>
        <_>
          <internalNodes>
            0 -1 181 5.1542464643716812e-04</internalNodes>
          <leafValues>
            -1.2483912706375122e-01 2.9213482141494751e-01</leafValues></_>
        <_>
          <internalNodes>
            0 -1 194 -8.4568308666348457e-03</internalNodes>
          <leafValues>
            3.5516235232353210e-01 -6.1490964144468307e-02</leafValues></_>
        <_>
          <internalNodes>
            0 -1 229 8.7083835387602448e-04</internalNodes>
          <leafValues>
            -1.3073180615901947e-01 2.2801005840301514e-01</leafValues></_>
        <_>
          <internalNodes>
            0 -1 244 9.4724807422608137e-04</internalNodes>
          <leafValues>
            -1.2316335737705231e-01 2.2133231163024902e-01</leafValues></_>
        <_>
          <internalNodes>
            0 -1 89 -1.3873822055757046e-02</internalNodes>
          <leafValues>
            2.9740008711814880e-01 -5.8913730084896088e-02</leafValues></_>
        <_>
          <internalNodes>
            0 -1 43 2.6849427819252014e-01</internalNodes>
          <leafValues>
            -7.4411943554878235e-02 4.5596799254417419e-01</leafValues></_>
        <_>
          <internalNodes>
            0 -1 431 -5.6027341634035110e-03</internalNodes>
          <leafValues>
            2.9536470770835876e-01 -6.3758574426174164e-02</leafValues></_>
        <_>
          <internalNodes>
            0 -1 477 -8.3207967691123486e-04</internalNodes>
          <leafValues>
            2.6072916388511658e-01 -8.5618682205677032e-02</leafValues></_>
        <_>
          <internalNodes>
            0 -1 118 2.0939778536558151e-02</internalNodes>
          <leafValues>
            -9.1111764311790466e-02 2.5200036168098450e-01</leafValues></_>
        <_>
          <internalNodes>
            0 -1 158 3.0458122491836548e-02</internalNodes>
          <leafValues>
            -8.8961966335773468e-02 2.5234758853912354e-01</leafValues></_>
        <_>
          <internalNodes>
            0 -1 53 1.4124920591711998e-02</internalNodes>
          <leafValues>
            5.5144004523754120e-02 -6.8858349323272705e-01</leafValues></_>
        <_>
          <internalNodes>
            0 -1 433 -2.2520096972584724e-03</internalNodes>
          <leafValues>
            2.2998002171516418e-01 -1.0266838222742081e-01</leafValues></_>
        <_>
          <internalNodes>
            0 -1 201 8.2091486547142267e-04</internalNodes>
          <leafValues>
            -1.3262060284614563e-01 1.9901396334171295e-01</leafValues></_>
        <_>
          <internalNodes>
            0 -1 52 -8.3574485033750534e-03</internalNodes>
          <leafValues>
            -5.2140724658966064e-01 5.7202678173780441e-02</leafValues></_>
        <_>
          <internalNodes>
            0 -1 346 -2.6768454909324646e-01</internalNodes>
          <leafValues>
            -7.5033253431320190e-01 4.0324207395315170e-02</leafValues></_>
        <_>
          <internalNodes>
            0 -1 339 1.5571486437693238e-03</internalNodes>
          <leafValues>
            -8.9344993233680725e-02 2.4776759743690491e-01</leafValues></_>
        <_>
          <internalNodes>
            0 -1 338 -6.4959173323586583e-04</internalNodes>
          <leafValues>
            2.1443045139312744e-01 -1.5138803422451019e-01</leafValues></_>
        <_>
          <internalNodes>
            0 -1 343 7.6365936547517776e-04</internalNodes>
          <leafValues>
            6.3125431537628174e-02 -3.4952071309089661e-01</leafValues></_>
        <_>
          <internalNodes>
            0 -1 250 2.7970253722742200e-04</internalNodes>
          <leafValues>
            -1.1004322767257690e-01 2.2350712120532990e-01</leafValues></_>
        <_>
          <internalNodes>
            0 -1 233 2.2988943383097649e-03</internalNodes>
          <leafValues>
            7.4823029339313507e-02 -3.3560004830360413e-01</leafValues></_>
        <_>
          <internalNodes>
            0 -1 151 -1.1400758288800716e-02</internalNodes>
          <leafValues>
            -4.0791320800781250e-01 5.5283550173044205e-02</leafValues></_>
        <_>
          <internalNodes>
            0 -1 393 1.0098977945744991e-03</internalNodes>
          <leafValues>
            -5.4186094552278519e-02 4.1292271018028259e-01</leafValues></_>
        <_>
          <internalNodes>
            0 -1 175 -1.6481598839163780e-02</internalNodes>
          <leafValues>
            -6.1685281991958618e-01 3.7845585495233536e-02</leafValues></_>
        <_>
          <internalNodes>
            0 -1 305 -3.2410239800810814e-03</internalNodes>
          <leafValues>
            2.8665181994438171e-01 -9.0312667191028595e-02</leafValues></_>
        <_>
          <internalNodes>
            0 -1 272 1.1600496945902705e-03</internalNodes>
          <leafValues>
            -1.0841817408800125e-01 2.3697496950626373e-01</leafValues></_>
        <_>
          <internalNodes>
            0 -1 190 1.1836547637358308e-03</internalNodes>
          <leafValues>
            -1.4812825620174408e-01 2.0106196403503418e-01</leafValues></_>
        <_>
          <internalNodes>
            0 -1 520 -2.6664367396733724e-05</internalNodes>
          <leafValues>
            1.7878010869026184e-01 -1.2815538048744202e-01</leafValues></_>
        <_>
          <internalNodes>
            0 -1 316 -1.6230000182986259e-03</internalNodes>
          <leafValues>
            1.7301356792449951e-01 -1.3236451148986816e-01</leafValues></_>
        <_>
          <internalNodes>
            0 -1 383 5.1832753233611584e-03</internalNodes>
          <leafValues>
            -1.1327123641967773e-01 2.0989648997783661e-01</leafValues></_>
        <_>
          <internalNodes>
            0 -1 533 -1.8631573766469955e-02</internalNodes>
          <leafValues>
            -6.8956965208053589e-01 3.8044735789299011e-02</leafValues></_>
        <_>
          <internalNodes>
            0 -1 275 -5.3889176342636347e-04</internalNodes>
          <leafValues>
            2.6128014922142029e-01 -1.0389732569456100e-01</leafValues></_>
        <_>
          <internalNodes>
            0 -1 9 -2.5757497549057007e-01</internalNodes>
          <leafValues>
            4.7086381912231445e-01 -4.6776536852121353e-02</leafValues></_>
        <_>
          <internalNodes>
            0 -1 457 4.2243944481015205e-03</internalNodes>
          <leafValues>
            -8.3766005933284760e-02 3.0354797840118408e-01</leafValues></_>
        <_>
          <internalNodes>
            0 -1 485 -8.0109965056180954e-03</internalNodes>
          <leafValues>
            -7.3424756526947021e-01 3.8929089903831482e-02</leafValues></_>
        <_>
          <internalNodes>
            0 -1 8 -4.8345457762479782e-03</internalNodes>
          <leafValues>
            -3.8406720757484436e-01 4.9787614494562149e-02</leafValues></_>
        <_>
          <internalNodes>
            0 -1 167 -1.2295089662075043e-02</internalNodes>
          <leafValues>
            -6.0401976108551025e-01 3.5687074065208435e-02</leafValues></_>
        <_>
          <internalNodes>
            0 -1 442 -2.1239544730633497e-03</internalNodes>
          <leafValues>
            4.2579799890518188e-01 -5.7421613484621048e-02</leafValues></_>
        <_>
          <internalNodes>
            0 -1 499 -3.5549770109355450e-03</internalNodes>
          <leafValues>
            -7.1145522594451904e-01 3.3528055995702744e-02</leafValues></_>
        <_>
          <internalNodes>
            0 -1 403 -6.5827148500829935e-04</internalNodes>
          <leafValues>
            2.6330253481864929e-01 -8.3543397486209869e-02</leafValues></_>
        <_>
          <internalNodes>
            0 -1 324 2.3767042905092239e-02</internalNodes>
          <leafValues>
            3.1073138117790222e-02 -7.1174937486648560e-01</leafValues></_>
        <_>
          <internalNodes>
            0 -1 315 3.9456650847569108e-04</internalNodes>
          <leafValues>
            -1.3298681378364563e-01 1.6878354549407959e-01</leafValues></_>
        <_>
          <internalNodes>
            0 -1 292 4.3707573786377907e-04</internalNodes>
          <leafValues>
            -1.4554964005947113e-01 1.6898304224014282e-01</leafValues></_>
        <_>
          <internalNodes>
            0 -1 205 -1.1599356308579445e-02</internalNodes>
          <leafValues>
            2.3653575778007507e-01 -9.8073378205299377e-02</leafValues></_>
        <_>
          <internalNodes>
            0 -1 239 2.7170814573764801e-03</internalNodes>
          <leafValues>
            -7.4914425611495972e-02 2.8855314850807190e-01</leafValues></_>
        <_>
          <internalNodes>
            0 -1 388 1.1979546397924423e-03</internalNodes>
          <leafValues>
            -5.4261751472949982e-02 4.1841024160385132e-01</leafValues></_>
        <_>
          <internalNodes>
            0 -1 147 -6.0041700489819050e-03</internalNodes>
          <leafValues>
            7.1676975488662720e-01 -2.8671776875853539e-02</leafValues></_></weakClassifiers></_>
    <!-- stage 10 -->
    <_>
      <maxWeakCount>50</maxWeakCount>
      <stageThreshold>-9.0859830379486084e-01</stageThreshold>
      <weakClassifiers>
        <_>
          <internalNodes>
            0 -1 411 -4.9538130406290293e-04</internalNodes>
          <leafValues>
            1.9167904555797577e-01 -1.7704123258590698e-01</leafValues></_>
        <_>
          <internalNodes>
            0 -1 390 -2.9687399510294199e-03</internalNodes>
          <leafValues>
            2.8765890002250671e-01 -1.0007175803184509e-01</leafValues></_>
        <_>
          <internalNodes>
            0 -1 392 2.5167439598590136e-03</internalNodes>
          <leafValues>
            -1.4323036372661591e-01 2.9604786634445190e-01</leafValues></_>
        <_>
          <internalNodes>
            0 -1 427 -2.2351741790771484e-04</internalNodes>
          <leafValues>
            2.8121298551559448e-01 -6.5908811986446381e-02</leafValues></_>
        <_>
          <internalNodes>
            0 -1 495 -3.1909410608932376e-04</internalNodes>
          <leafValues>
            2.6708993315696716e-01 -1.2662957608699799e-01</leafValues></_>
        <_>
          <internalNodes>
            0 -1 86 1.3535141944885254e-01</internalNodes>
          <leafValues>
            -9.4853229820728302e-02 2.6601675152778625e-01</leafValues></_>
        <_>
          <internalNodes>
            0 -1 299 1.4487287262454629e-03</internalNodes>
          <leafValues>
            -9.5639273524284363e-02 3.0261752009391785e-01</leafValues></_>
        <_>
          <internalNodes>
            0 -1 384 5.8109965175390244e-04</internalNodes>
          <leafValues>
            -2.8147256001830101e-02 3.5336706042289734e-01</leafValues></_>
        <_>
          <internalNodes>
            0 -1 381 1.2047874042764306e-03</internalNodes>
          <leafValues>
            -1.2136006355285645e-01 2.0494005084037781e-01</leafValues></_>
        <_>
          <internalNodes>
            0 -1 516 -1.8204399384558201e-04</internalNodes>
          <leafValues>
            1.5412816405296326e-01 -1.4830629527568817e-01</leafValues></_>
        <_>
          <internalNodes>
            0 -1 243 -2.6090058963745832e-04</internalNodes>
          <leafValues>
            2.6138144731521606e-01 -8.7598487734794617e-02</leafValues></_>
        <_>
          <internalNodes>
            0 -1 546 -2.6121619157493114e-05</internalNodes>
          <leafValues>
            1.6881749033927917e-01 -1.3655358552932739e-01</leafValues></_>
        <_>
          <internalNodes>
            0 -1 187 -2.0014807581901550e-01</internalNodes>
          <leafValues>
            3.8282734155654907e-01 -5.6831132620573044e-02</leafValues></_>
        <_>
          <internalNodes>
            0 -1 242 9.0970546007156372e-02</internalNodes>
          <leafValues>
            -9.7532235085964203e-02 3.2092285156250000e-01</leafValues></_>
        <_>
          <internalNodes>
            0 -1 223 2.8497548773884773e-03</internalNodes>
          <leafValues>
            -1.1532833427190781e-01 2.2093693912029266e-01</leafValues></_>
        <_>
          <internalNodes>
            0 -1 222 -2.4152349215000868e-03</internalNodes>
          <leafValues>
            2.4670542776584625e-01 -1.1887063831090927e-01</leafValues></_>
        <_>
          <internalNodes>
            0 -1 232 1.9929013797082007e-04</internalNodes>
          <leafValues>
            -8.5182562470436096e-02 2.3660232126712799e-01</leafValues></_>
        <_>
          <internalNodes>
            0 -1 312 -5.7598697021603584e-03</internalNodes>
          <leafValues>
            2.5277349352836609e-01 -1.0424970090389252e-01</leafValues></_>
        <_>
          <internalNodes>
            0 -1 314 3.5962462425231934e-02</internalNodes>
          <leafValues>
            -7.6531395316123962e-02 3.3730602264404297e-01</leafValues></_>
        <_>
          <internalNodes>
            0 -1 1 -2.6764681097120047e-03</internalNodes>
          <leafValues>
            -4.3772602081298828e-01 5.9744901955127716e-02</leafValues></_>
        <_>
          <internalNodes>
            0 -1 434 -2.7309702709317207e-03</internalNodes>
          <leafValues>
            2.8696200251579285e-01 -8.4885403513908386e-02</leafValues></_>
        <_>
          <internalNodes>
            0 -1 159 -2.8075866401195526e-02</internalNodes>
          <leafValues>
            1.7501801252365112e-01 -1.5417918562889099e-01</leafValues></_>
        <_>
          <internalNodes>
            0 -1 300 -5.6653944775462151e-03</internalNodes>
          <leafValues>
            3.3216020464897156e-01 -7.0378899574279785e-02</leafValues></_>
        <_>
          <internalNodes>
            0 -1 280 -3.5124639980494976e-03</internalNodes>
          <leafValues>
            2.6536008715629578e-01 -9.7663372755050659e-02</leafValues></_>
        <_>
          <internalNodes>
            0 -1 213 5.6619308452354744e-05</internalNodes>
          <leafValues>
            -1.4925453066825867e-01 1.7317096889019012e-01</leafValues></_>
        <_>
          <internalNodes>
            0 -1 113 -1.9076213939115405e-03</internalNodes>
          <leafValues>
            2.1051640808582306e-01 -1.1703465133905411e-01</leafValues></_>
        <_>
          <internalNodes>
            0 -1 71 2.6695819542510435e-05</internalNodes>
          <leafValues>
            -1.5452302992343903e-01 1.5388378500938416e-01</leafValues></_>
        <_>
          <internalNodes>
            0 -1 506 1.5434335917234421e-02</internalNodes>
          <leafValues>
            -8.1675380468368530e-02 2.7132213115692139e-01</leafValues></_>
        <_>
          <internalNodes>
            0 -1 13 4.5914843678474426e-01</internalNodes>
          <leafValues>
            -6.5208807587623596e-02 4.1315853595733643e-01</leafValues></_>
        <_>
          <internalNodes>
            0 -1 11 -7.0388272404670715e-02</internalNodes>
          <leafValues>
            2.1159878373146057e-01 -1.1832459270954132e-01</leafValues></_>
        <_>
          <internalNodes>
            0 -1 84 4.6755909919738770e-02</internalNodes>
          <leafValues>
            -8.9147187769412994e-02 3.0224838852882385e-01</leafValues></_>
        <_>
          <internalNodes>
            0 -1 91 -1.1498995590955019e-03</internalNodes>
          <leafValues>
            2.1229156851768494e-01 -1.4138270914554596e-01</leafValues></_>
        <_>
          <internalNodes>
            0 -1 448 -3.6691108834929764e-04</internalNodes>
          <leafValues>
            2.2951130568981171e-01 -1.1034393310546875e-01</leafValues></_>
        <_>
          <internalNodes>
            0 -1 481 -5.0539718940854073e-03</internalNodes>
          <leafValues>
            -7.2751647233963013e-01 3.7601999938488007e-02</leafValues></_>
        <_>
          <internalNodes>
            0 -1 399 1.0617881780490279e-03</internalNodes>
          <leafValues>
            -1.1413814872503281e-01 2.2459247708320618e-01</leafValues></_>
        <_>
          <internalNodes>
            0 -1 179 -6.3801407814025879e-03</internalNodes>
          <leafValues>
            3.8575950264930725e-01 -5.9648964554071426e-02</leafValues></_>
        <_>
          <internalNodes>
            0 -1 538 -3.5519267839845270e-05</internalNodes>
          <leafValues>
            1.7841927707195282e-01 -1.3285703957080841e-01</leafValues></_>
        <_>
          <internalNodes>
            0 -1 33 1.1086296290159225e-03</internalNodes>
          <leafValues>
            -1.0696434974670410e-01 2.2232645750045776e-01</leafValues></_>
        <_>
          <internalNodes>
            0 -1 318 -1.2374477460980415e-02</internalNodes>
          <leafValues>
            1.8777878582477570e-01 -1.2078712135553360e-01</leafValues></_>
        <_>
          <internalNodes>
            0 -1 440 -2.9845181852579117e-02</internalNodes>
          <leafValues>
            2.6364982128143311e-01 -1.0790797322988510e-01</leafValues></_>
        <_>
          <internalNodes>
            0 -1 235 4.9483696930110455e-03</internalNodes>
          <leafValues>
            5.2555315196514130e-02 -5.5999845266342163e-01</leafValues></_>
        <_>
          <internalNodes>
            0 -1 498 -5.8978544548153877e-03</internalNodes>
          <leafValues>
            2.3059542477130890e-01 -1.1189465224742889e-01</leafValues></_>
        <_>
          <internalNodes>
            0 -1 26 -9.3168634921312332e-03</internalNodes>
          <leafValues>
            2.2333982586860657e-01 -1.0240977257490158e-01</leafValues></_>
        <_>
          <internalNodes>
            0 -1 106 2.7898522093892097e-03</internalNodes>
          <leafValues>
            3.8109369575977325e-02 -5.7906556129455566e-01</leafValues></_>
        <_>
          <internalNodes>
            0 -1 32 -7.7315494418144226e-02</internalNodes>
          <leafValues>
            -7.1440392732620239e-01 2.6156181469559669e-02</leafValues></_>
        <_>
          <internalNodes>
            0 -1 355 -2.2135195322334766e-03</internalNodes>
          <leafValues>
            2.0660988986492157e-01 -1.1505893617868423e-01</leafValues></_>
        <_>
          <internalNodes>
            0 -1 249 4.0790503844618797e-03</internalNodes>
          <leafValues>
            -9.2999264597892761e-02 2.7113163471221924e-01</leafValues></_>
        <_>
          <internalNodes>
            0 -1 463 1.3925248757004738e-02</internalNodes>
          <leafValues>
            3.4215610474348068e-02 -7.4813526868820190e-01</leafValues></_>
        <_>
          <internalNodes>
            0 -1 297 -6.3810413703322411e-03</internalNodes>
          <leafValues>
            2.7290377020835876e-01 -8.7097913026809692e-02</leafValues></_>
        <_>
          <internalNodes>
            0 -1 134 -1.2613504193723202e-02</internalNodes>
          <leafValues>
            -3.7654864788055420e-01 5.9374958276748657e-02</leafValues></_></weakClassifiers></_>
    <!-- stage 11 -->
    <_>
      <maxWeakCount>100</maxWeakCount>
      <stageThreshold>-9.4148176908493042e-01</stageThreshold>
      <weakClassifiers>
        <_>
          <internalNodes>
            0 -1 236 2.6654493808746338e-01</internalNodes>
          <leafValues>
            -8.8135592639446259e-02 4.7142857313156128e-01</leafValues></_>
        <_>
          <internalNodes>
            0 -1 236 2.6199066638946533e-01</internalNodes>
          <leafValues>
            3.4184574615210295e-03 -1.</leafValues></_>
        <_>
          <internalNodes>
            0 -1 236 2.6057922840118408e-01</internalNodes>
          <leafValues>
            -6.1994948191568255e-04 1.</leafValues></_>
        <_>
          <internalNodes>
            0 -1 236 2.5823688507080078e-01</internalNodes>
          <leafValues>
            1.5715033514425159e-03 -1.</leafValues></_>
        <_>
          <internalNodes>
            0 -1 236 2.5753015279769897e-01</internalNodes>
          <leafValues>
            -6.2073115259408951e-04 1.</leafValues></_>
        <_>
          <internalNodes>
            0 -1 236 2.5561350584030151e-01</internalNodes>
          <leafValues>
            1.5764581039547920e-03 -1.</leafValues></_>
        <_>
          <internalNodes>
            0 -1 236 2.5064948201179504e-01</internalNodes>
          <leafValues>
            -5.1962919533252716e-03 9.8058170080184937e-01</leafValues></_>
        <_>
          <internalNodes>
            0 -1 236 2.4789735674858093e-01</internalNodes>
          <leafValues>
            1.5847393078729510e-03 -1.</leafValues></_>
        <_>
          <internalNodes>
            0 -1 236 2.4626585841178894e-01</internalNodes>
          <leafValues>
            -6.2932528089731932e-04 1.</leafValues></_>
        <_>
          <internalNodes>
            0 -1 236 2.4398028850555420e-01</internalNodes>
          <leafValues>
            1.0593219194561243e-03 -1.</leafValues></_>
        <_>
          <internalNodes>
            0 -1 236 2.4310201406478882e-01</internalNodes>
          <leafValues>
            -1.2610336998477578e-03 1.</leafValues></_>
        <_>
          <internalNodes>
            0 -1 236 2.4165371060371399e-01</internalNodes>
          <leafValues>
            1.0615704813972116e-03 -1.</leafValues></_>
        <_>
          <internalNodes>
            0 -1 236 2.3994210362434387e-01</internalNodes>
          <leafValues>
            -1.2642220826819539e-03 1.</leafValues></_>
        <_>
          <internalNodes>
            0 -1 236 2.3908317089080811e-01</internalNodes>
          <leafValues>
            5.3163146367296576e-04 -1.</leafValues></_>
        <_>
          <internalNodes>
            0 -1 236 2.3674455285072327e-01</internalNodes>
          <leafValues>
            -1.2674271129071712e-03 1.</leafValues></_>
        <_>
          <internalNodes>
            0 -1 236 2.3629856109619141e-01</internalNodes>
          <leafValues>
            1.0649620089679956e-03 -1.</leafValues></_>
        <_>
          <internalNodes>
            0 -1 236 2.3494820296764374e-01</internalNodes>
          <leafValues>
            -2.5445288047194481e-03 1.</leafValues></_>
        <_>
          <internalNodes>
            0 -1 236 2.3372656106948853e-01</internalNodes>
          <leafValues>
            1.0672303615137935e-03 -1.</leafValues></_>
        <_>
          <internalNodes>
            0 -1 236 2.3206245899200439e-01</internalNodes>
          <leafValues>
            -1.2771388282999396e-03 1.</leafValues></_>
        <_>
          <internalNodes>
            0 -1 236 2.3050326108932495e-01</internalNodes>
          <leafValues>
            5.3447287064045668e-04 -1.</leafValues></_>
        <_>
          <internalNodes>
            0 -1 236 2.2801771759986877e-01</internalNodes>
          <leafValues>
            -6.3979520928114653e-04 1.</leafValues></_>
        <_>
          <internalNodes>
            0 -1 236 2.2437809407711029e-01</internalNodes>
          <leafValues>
            1.6068557742983103e-03 -1.</leafValues></_>
        <_>
          <internalNodes>
            0 -1 236 2.2375553846359253e-01</internalNodes>
          <leafValues>
            -6.4061360899358988e-04 1.</leafValues></_>
        <_>
          <internalNodes>
            0 -1 236 2.2303545475006104e-01</internalNodes>
          <leafValues>
            5.3676858078688383e-04 -1.</leafValues></_>
        <_>
          <internalNodes>
            0 -1 236 2.2285725176334381e-01</internalNodes>
          <leafValues>
            -6.4143678173422813e-04 1.</leafValues></_>
        <_>
          <internalNodes>
            0 -1 236 2.1890810132026672e-01</internalNodes>
          <leafValues>
            2.0502575207501650e-03 -9.7225165367126465e-01</leafValues></_>
        <_>
          <internalNodes>
            0 -1 236 2.1720311045646667e-01</internalNodes>
          <leafValues>
            -3.2237237319350243e-03 9.8260158300399780e-01</leafValues></_>
        <_>
          <internalNodes>
            0 -1 236 2.1447940170764923e-01</internalNodes>
          <leafValues>
            2.7070813812315464e-03 -9.7587656974792480e-01</leafValues></_>
        <_>
          <internalNodes>
            0 -1 236 2.1369914710521698e-01</internalNodes>
          <leafValues>
            -6.4724258845672011e-04 9.8245841264724731e-01</leafValues></_>
        <_>
          <internalNodes>
            0 -1 236 2.1305450797080994e-01</internalNodes>
          <leafValues>
            5.4318294860422611e-04 -9.7776770591735840e-01</leafValues></_>
        <_>
          <internalNodes>
            0 -1 236 2.1264737844467163e-01</internalNodes>
          <leafValues>
            -6.4808811293914914e-04 9.8238515853881836e-01</leafValues></_>
        <_>
          <internalNodes>
            0 -1 236 2.1226240694522858e-01</internalNodes>
          <leafValues>
            5.4377369815483689e-04 -9.7951734066009521e-01</leafValues></_>
        <_>
          <internalNodes>
            0 -1 236 2.1193712949752808e-01</internalNodes>
          <leafValues>
            -6.4892921363934875e-04 9.8237526416778564e-01</leafValues></_>
        <_>
          <internalNodes>
            0 -1 236 2.1180298924446106e-01</internalNodes>
          <leafValues>
            5.4436572827398777e-04 -9.7980934381484985e-01</leafValues></_>
        <_>
          <internalNodes>
            0 -1 236 2.1161359548568726e-01</internalNodes>
          <leafValues>
            -6.4977252623066306e-04 9.8237568140029907e-01</leafValues></_>
        <_>
          <internalNodes>
            0 -1 236 2.1142914891242981e-01</internalNodes>
          <leafValues>
            5.4495903896167874e-04 -9.8008370399475098e-01</leafValues></_>
        <_>
          <internalNodes>
            0 -1 236 2.1130260825157166e-01</internalNodes>
          <leafValues>
            -1.3020832557231188e-03 9.8247444629669189e-01</leafValues></_>
        <_>
          <internalNodes>
            0 -1 236 2.1078874170780182e-01</internalNodes>
          <leafValues>
            1.0917023755609989e-03 -9.8051059246063232e-01</leafValues></_>
        <_>
          <internalNodes>
            0 -1 236 2.1057808399200439e-01</internalNodes>
          <leafValues>
            -6.5231526969000697e-04 9.8249477148056030e-01</leafValues></_>
        <_>
          <internalNodes>
            0 -1 236 2.1010176837444305e-01</internalNodes>
          <leafValues>
            5.4674677085131407e-04 -9.8074841499328613e-01</leafValues></_>
        <_>
          <internalNodes>
            0 -1 236 2.0979753136634827e-01</internalNodes>
          <leafValues>
            -6.5316783729940653e-04 9.8252236843109131e-01</leafValues></_>
        <_>
          <internalNodes>
            0 -1 236 2.0952364802360535e-01</internalNodes>
          <leafValues>
            1.6438355669379234e-03 -9.8128187656402588e-01</leafValues></_>
        <_>
          <internalNodes>
            0 -1 236 2.0708975195884705e-01</internalNodes>
          <leafValues>
            -2.6212304364889860e-03 9.8282468318939209e-01</leafValues></_>
        <_>
          <internalNodes>
            0 -1 236 2.0629531145095825e-01</internalNodes>
          <leafValues>
            1.0988950962200761e-03 -9.8163563013076782e-01</leafValues></_>
        <_>
          <internalNodes>
            0 -1 236 2.0509108901023865e-01</internalNodes>
          <leafValues>
            -1.3157890643924475e-03 9.8295259475708008e-01</leafValues></_>
        <_>
          <internalNodes>
            0 -1 236 2.0370261371135712e-01</internalNodes>
          <leafValues>
            2.0986672025173903e-03 -9.6442556381225586e-01</leafValues></_>
        <_>
          <internalNodes>
            0 -1 236 2.0339566469192505e-01</internalNodes>
          <leafValues>
            -6.6006294218823314e-04 9.8262864351272583e-01</leafValues></_>
        <_>
          <internalNodes>
            0 -1 236 2.0257577300071716e-01</internalNodes>
          <leafValues>
            5.5340334074571729e-04 -9.6592915058135986e-01</leafValues></_>
        <_>
          <internalNodes>
            0 -1 236 2.0123502612113953e-01</internalNodes>
          <leafValues>
            -1.3227512827143073e-03 9.8222070932388306e-01</leafValues></_>
        <_>
          <internalNodes>
            0 -1 236 2.0064653456211090e-01</internalNodes>
          <leafValues>
            2.2197549697011709e-03 -9.6793538331985474e-01</leafValues></_>
        <_>
          <internalNodes>
            0 -1 236 2.0022505521774292e-01</internalNodes>
          <leafValues>
            -1.3262563152238727e-03 9.8189079761505127e-01</leafValues></_>
        <_>
          <internalNodes>
            0 -1 236 1.9992257654666901e-01</internalNodes>
          <leafValues>
            5.5648223496973515e-04 -9.6902018785476685e-01</leafValues></_>
        <_>
          <internalNodes>
            0 -1 236 1.9966170191764832e-01</internalNodes>
          <leafValues>
            -6.6445174161344767e-04 9.8151552677154541e-01</leafValues></_>
        <_>
          <internalNodes>
            0 -1 236 1.9904077053070068e-01</internalNodes>
          <leafValues>
            1.1148271150887012e-03 -9.7018116712570190e-01</leafValues></_>
        <_>
          <internalNodes>
            0 -1 236 1.9860610365867615e-01</internalNodes>
          <leafValues>
            -6.6533550852909684e-04 9.8119038343429565e-01</leafValues></_>
        <_>
          <internalNodes>
            0 -1 236 1.9755950570106506e-01</internalNodes>
          <leafValues>
            1.1173182865604758e-03 -9.7120577096939087e-01</leafValues></_>
        <_>
          <internalNodes>
            0 -1 236 1.9711664319038391e-01</internalNodes>
          <leafValues>
            -1.3333328533917665e-03 9.8100668191909790e-01</leafValues></_>
        <_>
          <internalNodes>
            0 -1 236 1.9644135236740112e-01</internalNodes>
          <leafValues>
            1.6806714702397585e-03 -9.7229921817779541e-01</leafValues></_>
        <_>
          <internalNodes>
            0 -1 236 1.9622656702995300e-01</internalNodes>
          <leafValues>
            -6.6800107015296817e-04 9.8077327013015747e-01</leafValues></_>
        <_>
          <internalNodes>
            0 -1 236 1.9612848758697510e-01</internalNodes>
          <leafValues>
            5.6148221483454108e-04 -9.7293043136596680e-01</leafValues></_>
        <_>
          <internalNodes>
            0 -1 236 1.9576358795166016e-01</internalNodes>
          <leafValues>
            -1.3386880746111274e-03 9.8066794872283936e-01</leafValues></_>
        <_>
          <internalNodes>
            0 -1 236 1.9529157876968384e-01</internalNodes>
          <leafValues>
            5.6211272021755576e-04 -9.7350651025772095e-01</leafValues></_>
        <_>
          <internalNodes>
            0 -1 236 1.9478808343410492e-01</internalNodes>
          <leafValues>
            -6.7069072974845767e-04 9.8049026727676392e-01</leafValues></_>
        <_>
          <internalNodes>
            0 -1 236 1.9451931118965149e-01</internalNodes>
          <leafValues>
